digraph Tree {
node [shape=box] ;
0 [label="X[9] <= 21.5\nmse = 3768.852\nsamples = 30045\nvalue = 95.062"] ;
1 [label="X[9] <= 12.5\nmse = 881.22\nsamples = 11225\nvalue = 64.475"] ;
0 -> 1 [labeldistance=2.5, labelangle=45, headlabel="True"] ;
2 [label="X[3] <= 1.5\nmse = 461.848\nsamples = 5601\nvalue = 52.941"] ;
1 -> 2 ;
3 [label="X[3] <= 0.5\nmse = 150.319\nsamples = 523\nvalue = 34.829"] ;
2 -> 3 ;
4 [label="mse = 99.482\nsamples = 34\nvalue = 2.441"] ;
3 -> 4 ;
5 [label="mse = 75.848\nsamples = 489\nvalue = 37.081"] ;
3 -> 5 ;
6 [label="X[6] <= 0.5\nmse = 456.667\nsamples = 5078\nvalue = 54.807"] ;
2 -> 6 ;
7 [label="mse = 431.149\nsamples = 4401\nvalue = 53.582"] ;
6 -> 7 ;
8 [label="mse = 549.467\nsamples = 677\nvalue = 62.765"] ;
6 -> 8 ;
9 [label="X[3] <= 4.5\nmse = 1034.449\nsamples = 5624\nvalue = 75.962"] ;
1 -> 9 ;
10 [label="X[3] <= 1.5\nmse = 810.158\nsamples = 3372\nvalue = 68.201"] ;
9 -> 10 ;
11 [label="mse = 586.807\nsamples = 365\nvalue = 45.321"] ;
10 -> 11 ;
12 [label="mse = 766.009\nsamples = 3007\nvalue = 70.979"] ;
10 -> 12 ;
13 [label="X[7] <= 2016.5\nmse = 1145.1\nsamples = 2252\nvalue = 87.581"] ;
9 -> 13 ;
14 [label="mse = 796.988\nsamples = 973\nvalue = 76.182"] ;
13 -> 14 ;
15 [label="mse = 1235.875\nsamples = 1279\nvalue = 96.253"] ;
13 -> 15 ;
16 [label="X[9] <= 36.5\nmse = 4600.326\nsamples = 18820\nvalue = 113.305"] ;
0 -> 16 [labeldistance=2.5, labelangle=-45, headlabel="False"] ;
17 [label="X[8] <= 5.5\nmse = 4014.345\nsamples = 10347\nvalue = 150.883"] ;
16 -> 17 ;
18 [label="X[7] <= 2015.5\nmse = 3544.536\nsamples = 7090\nvalue = 171.853"] ;
17 -> 18 ;
19 [label="mse = 2147.86\nsamples = 2082\nvalue = 141.514"] ;
18 -> 19 ;
20 [label="mse = 3583.44\nsamples = 5008\nvalue = 184.466"] ;
18 -> 20 ;
21 [label="X[3] <= 4.5\nmse = 1996.08\nsamples = 3257\nvalue = 105.235"] ;
17 -> 21 ;
22 [label="mse = 1751.114\nsamples = 1685\nvalue = 91.005"] ;
21 -> 22 ;
23 [label="mse = 1808.919\nsamples = 1572\nvalue = 120.489"] ;
21 -> 23 ;
24 [label="X[8] <= 10.5\nmse = 1485.673\nsamples = 8473\nvalue = 67.416"] ;
16 -> 24 ;
25 [label="X[9] <= 52.5\nmse = 1218.245\nsamples = 6507\nvalue = 60.32"] ;
24 -> 25 ;
26 [label="mse = 619.585\nsamples = 6044\nvalue = 56.187"] ;
25 -> 26 ;
27 [label="mse = 5899.644\nsamples = 463\nvalue = 114.27"] ;
25 -> 27 ;
28 [label="X[3] <= 4.5\nmse = 1652.531\nsamples = 1966\nvalue = 90.903"] ;
24 -> 28 ;
29 [label="mse = 1276.964\nsamples = 1282\nvalue = 78.799"] ;
28 -> 29 ;
30 [label="mse = 1567.257\nsamples = 684\nvalue = 113.588"] ;
28 -> 30 ;
}